{
  "input_nodes": 4,
  "hidden_nodes": 12,
  "output_nodes": 4,
  "weights_ih": {
    "rows": 12,
    "cols": 4,
    "data": [
      [
        0.8637959534648731,
        -0.4899007823593668,
        0.9725192162978686,
        0.8075358406708573
      ],
      [
        2.1452475385787437,
        -0.6329862401451181,
        -0.10898715285284599,
        -0.5266782915849965
      ],
      [
        1.8462375528481776,
        0.1751523896865809,
        0.2516680665436082,
        1.4409264142631404
      ],
      [
        -1.4641021295214607,
        0.5064254035958046,
        -1.6511463557848771,
        -0.9412915563645766
      ],
      [
        1.1264794355024093,
        0.6485717513080977,
        -0.05342587464649229,
        0.010223316063626961
      ],
      [
        -1.761499973729164,
        -0.4526453349397149,
        -3.3639987813691246,
        2.3653723053126154
      ],
      [
        0.3637634023933145,
        -1.6119306693867952,
        -0.7026649877813329,
        -0.9686474162107223
      ],
      [
        -0.18429791555966796,
        1.4639104906349916,
        -1.6196454018610131,
        0.5678407636712725
      ],
      [
        -1.673006266656353,
        1.0580763311137353,
        -0.7828139542701039,
        0.13572675254831557
      ],
      [
        0.042533114563688024,
        -2.090828136804596,
        1.8953658678180951,
        -0.16656829617932892
      ],
      [
        -0.14096475179692255,
        -1.4292987501305214,
        -0.19275481767654176,
        0.13052374877628004
      ],
      [
        0.4171230773110123,
        0.3032698988413185,
        0.810802416154555,
        -0.6423437325120989
      ]
    ]
  },
  "weights_ho": {
    "rows": 4,
    "cols": 12,
    "data": [
      [
        0.413830123697224,
        1.5893821549872356,
        -1.2702743171113693,
        1.3969645459413877,
        0.8738287603134698,
        1.0156068047080888,
        1.0538144214367298,
        0.17453749309511907,
        -2.873087027103031,
        4.039410113571747,
        -1.905178684793913,
        -1.2768361663290593
      ],
      [
        -2.029422149263598,
        0.2153594753790284,
        1.3026224152738797,
        2.333732535189249,
        -1.4576723513863237,
        -0.0468522074097677,
        0.16946351878240618,
        -0.35105835588502543,
        0.6284462704776214,
        -1.32987632954742,
        1.985174816949887,
        1.0025481031929753
      ],
      [
        -1.213712344238141,
        -0.8604927221270962,
        0.542968045225045,
        1.861235621582834,
        -0.7806896128949369,
        1.7939319417578443,
        -2.5208550549600957,
        -1.1402389703499225,
        -0.3322870742718431,
        0.041856274790914805,
        -2.189082812287535,
        1.711037983532482
      ],
      [
        -0.41056774992671313,
        -0.3349494203389436,
        -0.8606828559180458,
        0.37124717401468965,
        1.009573716823326,
        -0.14944378264753255,
        -1.8503820279982361,
        0.2660537975760012,
        -1.63848487442884,
        -1.2326785152962798,
        0.7172250593239918,
        2.4081583087487015
      ]
    ]
  },
  "bias_h": {
    "rows": 12,
    "cols": 1,
    "data": [
      [
        -2.264859991850738
      ],
      [
        0.045994447814998354
      ],
      [
        0.25505453096505715
      ],
      [
        -1.1886488299159925
      ],
      [
        0.8016987639704141
      ],
      [
        -0.5307267635202416
      ],
      [
        -0.038367229780058465
      ],
      [
        -0.3788099107299292
      ],
      [
        -2.6360365895637408
      ],
      [
        -1.064832402054623
      ],
      [
        -0.3256462804452547
      ],
      [
        1.1678095901491068
      ]
    ]
  },
  "bias_o": {
    "rows": 4,
    "cols": 1,
    "data": [
      [
        0.6605859992273456
      ],
      [
        -0.17198975622752122
      ],
      [
        -3.669477788308928
      ],
      [
        -0.11012656029229756
      ]
    ]
  },
  "learning_rate": 0.3,
  "activation_function": {}
}
