{
  "input_nodes": 4,
  "hidden_nodes": 12,
  "output_nodes": 4,
  "weights_ih": {
    "rows": 12,
    "cols": 4,
    "data": [
      [
        0.8637959534648731,
        -0.4899007823593668,
        -0.34807561601154857,
        0.8075358406708573
      ],
      [
        1.8715875254508707,
        0.004335856852952513,
        -0.10898715285284599,
        -0.5266782915849965
      ],
      [
        1.2982054596106523,
        0.4621218095512271,
        0.2516680665436082,
        1.4409264142631404
      ],
      [
        -1.1188785216498673,
        0.5064254035958046,
        -1.552983879479683,
        -0.9412915563645766
      ],
      [
        1.1264794355024093,
        0.7734501291766408,
        -0.05342587464649229,
        0.010223316063626961
      ],
      [
        -1.5389885801735677,
        -0.12702414017929947,
        -3.3639987813691246,
        2.138493250382311
      ],
      [
        0.3637634023933145,
        -1.4297471935192456,
        -0.7026649877813329,
        -0.9686474162107223
      ],
      [
        -0.18429791555966796,
        1.4639104906349916,
        -1.0930932310884474,
        0.5678407636712725
      ],
      [
        -1.1700618655663955,
        0.3271599484944362,
        -0.8971234536817372,
        0.13572675254831557
      ],
      [
        0.7318673529645541,
        -2.090828136804596,
        2.1129835423735175,
        -0.16656829617932892
      ],
      [
        -0.4420552726000214,
        -0.059379990352717155,
        -0.18719097200243734,
        0.6369316979506114
      ],
      [
        0.2832183157483139,
        0.49605284245767156,
        0.810802416154555,
        -0.7440333572452034
      ]
    ]
  },
  "weights_ho": {
    "rows": 4,
    "cols": 12,
    "data": [
      [
        0.413830123697224,
        1.4034791623727507,
        -1.2702743171113693,
        0.805164908686399,
        0.8738287603134698,
        1.1964748940422345,
        0.9729573058524956,
        0.17453749309511907,
        -1.5380126884801384,
        4.039410113571747,
        -1.905178684793913,
        -1.2768361663290593
      ],
      [
        -2.2968330081207635,
        -0.24945020737627083,
        1.3026224152738797,
        1.8194356077851337,
        -1.4086176521317042,
        -0.0468522074097677,
        0.16946351878240618,
        -0.35105835588502543,
        0.5241133310227363,
        -0.8292417430360679,
        1.3514159327316841,
        1.0025481031929753
      ],
      [
        -1.213712344238141,
        -1.226189927865905,
        0.542968045225045,
        1.2171379420349746,
        -0.7806896128949369,
        0.603418989504984,
        -2.5208550549600957,
        -1.5257048103328708,
        0.6055321129277257,
        0.041856274790914805,
        -1.0321116944909898,
        1.5762107618567862
      ],
      [
        -0.5796469121383956,
        -0.3349494203389436,
        -0.2619560905024348,
        0.37124717401468965,
        0.5397804368462885,
        -0.26649801707324505,
        -1.8503820279982361,
        -0.38304208462303724,
        -1.3678236465042817,
        -1.2326785152962798,
        0.7172250593239918,
        2.7829285250726494
      ]
    ]
  },
  "bias_h": {
    "rows": 12,
    "cols": 1,
    "data": [
      [
        -1.689532220695599
      ],
      [
        0.146836644767168
      ],
      [
        0.8247352438889312
      ],
      [
        -1.1886488299159925
      ],
      [
        -0.24636012762845266
      ],
      [
        -0.5307267635202416
      ],
      [
        -0.038367229780058465
      ],
      [
        -0.3306675228461733
      ],
      [
        -2.598000011761755
      ],
      [
        -1.064832402054623
      ],
      [
        -0.41177296319471823
      ],
      [
        0.607055654885599
      ]
    ]
  },
  "bias_o": {
    "rows": 4,
    "cols": 1,
    "data": [
      [
        0.15430357916971674
      ],
      [
        0.7294103365120319
      ],
      [
        -3.669477788308928
      ],
      [
        0.4333455913078181
      ]
    ]
  },
  "learning_rate": 0.3,
  "activation_function": {}
}
